0.0477108 -0.0368683 -0.0775846 0.0105517 -0.0263275 0.0118776 0.0587745 -0.0995007 -0.0716725 -0.0305844 0.0756846 -0.102987 -0.00737556 -0.0150382 0.0407254 0.0501192 0.0048608 0.0691007 0.0238983 0.0713523 -0.0357338 0.0582056 -0.0923157 -0.052613 -0.0150813 0.0765877 -0.0502353 0.0206125 0.0309626 -0.0866442 -0.0882315 -0.0521524 -0.0308348 0.0855979 -0.0144972 -0.00975664 -0.00174328 -0.0419782 -0.0518751 0.000332433 -0.0340888 -0.0655418 -0.0541866 -0.00395752 -0.037067 -0.0860062 -0.0705979 0.0524423 0.0224079 0.0812284 -0.0510946 0.0784632 -0.0225968 -0.0532962 0.051308 0.0282339 0.0792983 -0.0843046 -0.072073 -0.0672293 -0.0748681 0.0863301 -0.036504 -0.0431125 0.0760351 -0.000412502 0.0633967 -0.0273169 -0.0187257 0.0904074 0.0757838 0.042784 0.0733757 -0.0358061 0.0651464 -0.0711101 -0.109098 -0.0895633 0.0154045 0.0198067 0.0399125 0.0527773 -0.0442864 -0.0616491 0.0471228 0.0466393 -0.0266795 0.0181411 -0.0192258 0.0115141 0.0329075 -0.0428566 -0.0666405 0.0305565 0.00698607 -0.103804 -0.0635506 -0.0608558 -0.025947 0.0206337 0.0875997 0.0896206 -0.082193 0.0611391 0.0685363 0.087809 0.0746603 0.086388 -0.0924463 -0.0768431 -0.0542951 -0.0125951 0.0872549 -0.0620631 0.0170544 0.0403089 0.00890058 0.0376539 0.0846853 0.101101 0.0935008 -0.0495978 -0.0664217 -0.0735324 0.0269302 0.0503215 -0.0536649 0.0717382 0.0535224 -0.00132342 -0.0558876 0.0356903 -0.0637714 -0.0900291 -0.0784147 -0.100199 -0.105373 0.0452029 0.0131629 0.0703728 0.0781099 -0.00953003 -0.0519786 0.00919512 -0.036158 -0.00881631 0.062172 0.0777446 -0.074798 0.0376515 0.0639573 -0.0770876 0.0369164 -0.0761239 -0.0542769 -0.0388127 0.0148032 -0.096495 -0.100809 -0.0314209 -0.0498723 0.0899306 0.0344807 -0.0274113 -0.0984893 0.00454999 -0.0708965 -0.0731815 -0.0491783 -0.035217 0.011256 0.0656152 0.060538 0.043875 -0.029008 -0.0833022 0.0745777 -0.0633209 0.0947629 -0.078068 0.0152645 0.0125182 0.0751434 0.0973834 0.0375034 0.0569123 -0.0334495 0.0754899 0.0671436 -0.0982133 0.0827494 -0.0796981 -0.113157 -0.0474291 0.00546805 -0.0751649 0.0583222 -0.0469287 0.0755835 0.0577061 0.0191743 -0.0474341 -0.0443848 -0.0186708 0.0190232 0.0159768 -0.0652945 0.0233246 0.00869451 0.0447156 -0.0310328 0.0560931 -0.0458789 0.0981792 0.0511376 0.0197853 0.0426916 0.0569516 0.00672113 0.0255212 0.0572622 -0.0140053 0.0538551 0.0199793 0.0445498 0.0787962 0.0320752 -0.0655126 -0.0828786 -0.0723631 0.08476 0.0546787 -0.0178513 -0.072313 0.0609343 0.0742717 -0.00721268 0.0423595 -0.0272944 0.0294087 -0.0124954 -0.0012317 -0.0705149 0.0596898 -0.0403949 0.0151645 -0.0639123 -0.0776411 -0.103276 0.0270892 -0.0129439 0.0892823 0.0868222 -0.0831521 -0.0449869 -0.0527162 0.0647969 0.0165063 -0.00788597 0.0867679 0.0619719 -0.0920763 -0.0173474 0.0700978 0.104658 0.0916787 0.0259354 -0.0565893 0.0197195 0.0471749 0.0707313 -0.0793171 -0.0592593 0.0397255 0.0252475 -0.029839 -0.0474345 0.086425 -0.0777133 -0.0281521 -0.0521948 -0.0655104 0.0974165 0.0481905 -0.0144591 -0.0615566 -0.0923771 0.0620202 0.00920535 -0.0797749 -0.000705123 -0.0530895 -0.0493083 0.0956436 -0.0876405 0.0731449 -0.00201001 0.0337676 -0.096491 -0.0592281 -0.0583553 0.0217651 -0.101413 -0.108673 -0.0367111 -0.0344482 -0.0346258 -0.0352318 0.0726933 -0.0880204 -0.0384913 0.0717585 -0.0639287 -0.0288182 0.0309709 -0.0480852 -0.0524545 0.0306363 -0.0838634 0.041061 0.0486952 0.0267719 0.0308059 0.0372387 -0.0460036 0.0316148 0.0175853 -0.00210249 -0.0705782 0.0270741 -0.0213809 -0.023423 0.103955 -0.0887199 -0.0155172 -0.0459046 -0.00633843 -0.0131609 -0.0296029 0.0830973 -0.0196835 0.0282574 0.0455061 -0.000113278 0.00701058 -0.00154256 0.0508242 -3.26359e-05 0.0449332 0.0279061 0.102889 -0.0390909 0.0896804 0.0240932 0.0548082 0.0746431 -0.084971 -0.0217745 -0.00689222 -0.051128 0.0470574 0.0586669 -0.0493617 -0.00757125 0.0365025 -0.0217325 0.061652 0.0908514 0.0762631 0.0414684 0.0816441 -0.0995429 -0.0625865 0.0357836 -0.00243729 0.0226536 0.0601797 0.0887187 -0.0657158 -0.0577125 0.028569 -0.0818486 0.00661067 -0.0539222 -0.029323 -0.0315336 -0.0316375 -0.0128104 -0.0132975 0.0425295 0.0144512 0.0802825 -0.0176172 0.0271453 -0.0229984 0.0799399 -0.115366 0.0419045 0.0880985 0.0704238 -0.000746296 0.0676106 0.0794623 -0.00137461 -0.056583 -0.0984313 -0.105465 0.0408707 -0.0844126 -0.0709869 0.0819266 -0.0280942 0.0688817 -0.0572797 0.0488449 -0.061052 -0.0658713 0.0831545 0.0352641 0.00772675 -0.0562272 0.0852214 -0.0646333 -0.0119436 0.0188796 -0.0594214 -0.0333821 -0.0363242 -0.104045 -0.0495378 -0.0701447 -0.0629307 0.0339361 0.0304487 0.0442583 0.0179757 -0.00844416 -0.0254118 0.0854271 -0.0493065 0.0117349 0.0714455 0.0157712 -0.0239281 0.0367003 0.0676714 -0.0368358 0.0841952 0.00347348 0.0830627 -0.0921965 0.0442324 0.00222211 -0.0477056 -0.0809921 0.0563682 -0.0527927 -0.0577841 -0.0986519 -0.0584505 -0.0710811 0.0486588 -0.0892618 0.00563086 -0.0608304 -0.0194643 -0.0611103 0.0175752 0.0781606 -0.0805203 0.0426807 -0.0238163 0.0564762 0.0829534 -0.0196039 -0.0105799 0.0123025 -0.0149391 -0.0494905 -0.0987728 -0.0471345 -0.024169 -0.0109925 -0.00803412 -0.00490207 -0.0429036 -0.0456756 0.0151058 0.00855507 -0.0422282 0.0157027 0.0349089 -0.0696685 -0.0276731 -0.0724753 0.0805118 0.0604659 -0.0870371 -0.00414875 0.0625611 -0.0614881 0.0773108 0.0533279 0.0119614 0.000162029 0.0695059 -0.102134 -0.0919789 -0.0559517 -0.0861329 -0.0613615 -0.0383879 
-0.0611966 0.0448662 -0.0920329 0.070695 0.0263673 -0.0674006 0.0685572 0.0014197 -0.075247 -0.0163494 0.0507019 0.0358531 -0.00617445 0.0339327 0.01794 0.0803715 -0.0329056 -0.0499431 -0.043954 -0.0637038 0.0114197 -0.0819653 -0.0525582 -0.0264659 -0.050539 -0.0460645 0.0928124 -0.0749657 -0.110246 0.0977949 -0.0778768 -0.0662907 0.0516862 -0.0617389 -0.083917 -0.0952608 -0.0915197 0.0504042 0.0143698 0.0563116 0.0776437 -0.0303478 0.0299198 -0.0290511 0.0223089 0.0846278 -0.0949274 0.0577939 -0.0904346 -0.0884732 0.083589 -0.0026648 0.0894496 0.0617563 -0.00467685 -0.0519997 -0.0872093 -0.0613955 -0.10334 0.0709742 -0.0809318 -0.0686401 -0.0758466 -0.0109261 -0.0570253 0.0949322 0.0203373 -0.0672828 -0.00103115 0.0554981 -0.0787559 -0.0262968 0.0667374 -0.0316564 -0.000905395 -0.0110556 -0.0373842 -0.0659844 -0.0942898 -0.077608 -0.0382963 0.0272692 -0.028453 -0.0644608 0.00717577 -0.00472231 -0.0819957 -0.0566018 -0.0381412 0.0713608 -0.0678078 -0.08814 -0.102678 -0.0471514 0.0269423 0.0781188 -0.0548038 0.0686652 -0.0950575 -0.0240762 0.0441701 0.0669764 0.0327801 0.013879 0.0865152 0.0777043 0.0410537 0.0826398 -0.0796141 0.0536844 0.025016 -0.084145 -0.0162116 -0.115543 0.0948405 0.0386713 -0.0631428 0.0636135 0.0951467 -0.00510137 0.0236737 -0.0720746 0.026725 0.0492992 -0.0903373 0.0867278 0.0254106 -0.087177 0.0682629 -0.0367479 -0.00708957 -0.0490986 0.0766791 0.0486118 0.00267327 0.0604467 0.0372525 -0.0371739 0.0355067 -8.42539e-05 0.0484502 -0.0752116 -0.0246239 0.0827406 -0.0797537 -0.050279 -0.00477464 -0.109819 -0.0674809 -0.00346894 0.00210369 0.0301559 -0.0482049 0.0608684 -0.0992887 -0.0276362 0.0612206 -0.0538134 -0.0252242 -0.0311943 -0.0551991 -0.0184213 0.0292369 -0.0611846 -0.0764549 -0.065306 0.0294759 0.00788797 -0.104167 -0.0742143 -0.102175 0.0525886 -0.0502613 -0.0311584 -0.0433893 -0.10296 -0.0495383 0.0448516 -0.0926287 -0.0349884 -0.119853 -0.0440504 0.043273 -0.0530298 0.0293476 -0.014984 -0.04184 0.0139849 0.0389848 -0.0324006 0.0201877 0.0418088 0.0594526 -0.0694213 0.0681681 0.0238811 0.0942218 -0.0500494 -0.0755154 -0.102813 -0.0245646 0.0914305 0.00313966 0.0197074 0.0848019 0.0683536 -0.0313378 -0.0435969 -0.0364 -0.0228986 -0.0503676 -0.0278577 -0.0200552 0.0654573 -0.0291516 -0.076534 -0.0864172 0.0217737 0.0605028 -0.0198621 -0.0805325 -0.0961786 -0.0749479 0.00346962 -0.0421513 0.0540548 -0.0296044 0.091513 0.110801 -0.00978497 0.0368261 -0.0138856 -0.0872373 -0.0704073 0.0242955 0.104607 0.0405122 -0.0881531 -0.0572697 -0.0967992 -0.0155053 -0.0104219 -0.0120939 0.0164463 -0.093373 0.0505042 0.0673431 -0.0887233 -0.0772794 0.0287102 -0.00205346 0.0867984 0.0477372 -0.0440732 -0.00685683 0.0414771 -0.104469 -0.0252435 -0.0378125 -0.0936936 0.00522008 -0.0793281 -0.0348428 0.0408255 0.0920583 -0.081913 0.016145 0.0311508 0.0937854 0.072536 -0.0320005 -0.0606744 0.0745725 0.0940892 0.0547487 0.077822 -0.0330541 0.0126055 0.050175 -0.0551058 0.0990978 -0.0643367 -0.0806529 -0.0228124 0.0141218 -0.0386802 0.0585929 0.020575 0.0438206 -0.0784502 0.0129042 -0.0458382 -0.0501407 0.0420385 0.0037359 -0.0665798 0.0097756 -0.0699205 0.00547286 -0.00487172 0.0963579 -0.108728 0.0340587 0.0990953 0.0207237 -0.0116971 0.0228794 0.0170092 0.054511 -0.0314264 0.0676528 0.0430251 -0.0528393 -0.109561 -0.071259 0.0117023 -0.091103 0.0766014 -0.0768534 -0.0234679 -0.0640874 -0.0244537 -0.019655 -0.0708886 0.0686647 0.0827405 0.113083 -0.0102727 -0.0649038 0.00365827 0.0344826 0.0739188 0.00904422 0.0752157 -0.0318886 -0.0606153 -0.0856111 -0.0972551 0.0600488 0.0623923 -0.0859241 -0.019741 -0.0348561 -0.0338936 -0.0823762 0.00211327 0.0760495 -0.0710981 -0.0660354 0.0453964 0.0144036 -0.090615 0.073308 0.0781046 -0.0678467 0.048169 0.0730285 -0.0700286 0.081674 0.0502445 -0.0439108 0.00384525 -0.00351857 0.0919974 -0.0587918 -0.0912046 0.022007 -0.0624048 0.0604999 -0.0639521 0.0508898 0.0388099 0.0205324 -0.0838022 0.0674394 0.0193891 0.0269189 0.0431148 -0.00586779 -0.00326353 3.33952e-05 -0.111323 -0.00437344 -0.0429635 0.00321685 -0.0360394 0.0414176 -0.053654 -0.0793532 0.0174811 0.0967961 0.0118228 0.0669498 0.00911167 -0.0681174 0.0829939 -0.0491396 0.046392 -0.0694959 0.0377281 0.048598 0.0747701 -0.0612018 -0.0964576 0.0494305 -0.0821848 -0.0264666 -0.117795 0.0419391 0.0843703 -0.00905945 0.0840207 0.0175547 0.0534342 0.0738366 -0.0436716 0.104059 0.0031535 -0.0782454 0.062789 0.0658356 -0.0811203 -0.0424339 0.0415381 -0.0412304 -0.035686 -0.0362846 -0.0450452 0.0705682 0.0131804 0.0979081 -0.0508546 -0.0897183 -0.0973444 -0.0526914 -0.00252837 -0.0540736 0.0580961 0.00701142 0.0348782 0.0295186 -0.0801834 -0.03816 0.0928945 -0.026954 -0.0405526 0.0795572 -0.103923 -0.00418905 0.089643 0.078509 -0.0813302 -0.100671 0.0873469 0.0518093 -0.0876717 -0.0658318 -0.0765535 -0.0259797 0.0622965 -0.0517521 -0.0496006 -0.087224 -0.0868597 -0.0101126 -0.0794303 0.0109163 -0.0188755 0.0812363 -0.0816658 0.0693656 -0.0888065 0.0767051 -0.0800382 -0.0819622 -0.0642949 -0.00691638 0.0586914 0.0970327 0.0270548 0.0707482 0.077367 0.0475034 0.0278562 0.0422994 -0.0412703 0.0409555 0.0449622 -0.0304298 -0.103556 -0.0590192 -0.0266969 -0.109477 0.0839656 -0.0965678 -0.052125 -0.0900348 0.0456288 0.0147854 0.0834407 0.0154141 -0.0257303 -0.0880161 -0.00440402 0.0146602 0.0726769 -0.0372378 0.0330235 -0.00390088 -0.0970109 0.103005 -0.0855013 
-0.030229 0.0764103 0.09348 0.0325877 0.0467948 0.0461681 0.0799798 0.0521967 0.0326094 -0.10503 0.0231889 0.0625892 0.0124187 0.0841386 -0.0777382 0.0661754 -0.0287822 -0.0498006 0.00657712 0.0800479 0.0390782 -0.0594367 -0.0888222 -0.078835 -0.00640097 0.0372186 -0.0179407 -0.0156305 -0.0950094 0.0516833 -0.0446364 -0.0254643 0.0301781 -0.0516422 -0.0907198 -0.0864205 0.0323904 0.0279324 0.0657601 -0.0970204 -0.0319878 -0.0116019 0.0656694 0.0198193 -0.0910643 0.087964 -0.0767408 -0.0188192 0.0769741 0.0311717 0.0995708 0.0167017 0.0709975 0.047058 0.034798 -0.0993769 -0.0166152 0.0605423 -0.0752019 -0.0106204 -0.0531286 -0.0196246 0.00299962 0.0787341 -0.0354609 -0.0488118 0.0910145 0.0965552 0.0167777 -0.00446957 -0.100474 0.0818329 0.0185172 0.00398587 0.00435126 0.0319417 -0.00767213 0.0269616 0.0515279 -0.0307517 0.0949483 -0.0138194 0.0207052 0.00419286 -0.0660038 0.09825 0.00718453 -0.0428289 0.0548605 0.0315834 -0.0166655 -0.0970754 -0.0886609 0.0237839 0.019387 -0.0788937 0.0133731 -0.0520139 -0.0852837 -0.0719513 0.0407608 0.0546722 0.0517753 -0.0351736 -0.0428044 0.0935788 0.0941946 0.0487977 -0.0408585 -0.0252378 0.0547984 -0.0426932 0.0677533 -0.0236376 0.056703 0.0415656 -0.0889509 -0.0354006 0.0967381 0.06605 0.0346363 -0.081847 0.00590323 -0.0160715 0.0431614 -0.0736548 -0.0013974 -0.045639 -0.0244282 0.0140664 -0.0784368 -0.0847605 -0.0944878 0.0747136 -0.0806925 -0.0368317 0.00459065 -0.0858603 -0.0878529 0.0629981 -0.0653456 0.00596045 -0.0836281 -0.0957538 0.0174421 0.0137433 0.0453608 0.0307808 0.015205 -0.0198089 -0.0593718 -0.050841 -0.00122107 0.0406639 0.0308124 -0.0599351 0.0677012 -0.0666292 -0.0686019 0.0807889 -0.0178004 -0.0460427 0.0359902 -0.00998501 0.0619594 0.0547974 0.0530088 -0.0339222 0.0081483 0.00215342 -0.0701145 0.0397981 -0.0965229 0.0861948 0.0465581 -0.0354668 -0.000477065 -0.0708348 0.0931451 -0.0858864 -0.0529283 -0.0722286 -0.0979889 0.0475453 0.00816741 0.0370079 0.0235458 -0.0246101 0.00524201 -0.00741592 0.0949103 0.0264625 -0.0162765 0.0287838 0.0549962 -0.0534188 -0.015827 -0.0532424 -0.0474298 0.089248 0.0455621 -0.0772817 -0.0290321 -0.00784307 -0.0900325 0.0547796 -0.00564531 -0.0540115 0.0839578 -0.0204826 -0.0400109 0.0693928 -0.0481225 -0.0386474 0.0139485 0.0611328 0.0340108 0.0759993 0.0725395 -0.0598308 -0.0318999 0.066349 0.00168386 -0.0102501 -0.0674009 -0.0424598 0.0357979 0.0177302 0.0043812 0.0898559 -0.0554267 0.0875213 -0.0879823 0.0155455 -0.0810455 0.0603763 -0.0922085 0.0183749 -0.094234 0.0921886 0.0401501 -0.0964018 0.0607366 0.0294363 -0.0986122 -0.0863983 -0.0113669 0.0361996 0.02838 0.09979 0.0121907 0.0339377 0.0655975 0.0522532 -0.0777807 0.0958128 -0.0896828 0.0607968 -0.0468215 -0.0468114 -0.0125275 -0.0650243 0.0815712 -0.0601481 -0.0134266 0.0387876 0.0412507 -0.00515743 0.0907655 0.045142 -0.0757053 -0.0352741 -0.0167626 0.0249856 0.0969671 -0.0110379 -0.0220929 -0.0760346 0.0625931 -0.095504 -0.0763474 -0.0240398 0.0366908 0.0273927 -0.0704323 0.0010667 -0.0373239 0.0775992 0.0986543 -0.0425063 0.0691303 -0.073564 -0.0110658 0.0491741 -0.0328223 0.0153053 -0.012617 -0.0938419 -0.0899878 -0.0855934 -0.0144986 0.0750955 -0.0162525 0.0742539 -0.000413996 -0.0206189 -0.0981193 0.0765787 0.00491956 0.0560701 0.018189 -0.0350065 0.0769332 0.0941577 0.0291356 0.0469042 -0.00538264 0.0947805 0.0223429 -0.069331 -0.0524938 -0.0720363 -0.0442877 -0.0237199 0.0775802 0.0225096 0.0891043 -0.098038 -0.0338 0.0390578 -0.083026 -0.00989257 0.0126857 -0.000444413 -0.0956765 0.0509765 0.0173809 -0.0946598 0.0269505 0.0583981 0.00742847 0.0827884 -0.076259 -0.0147566 0.0769579 0.0539536 -0.0711345 -0.0916004 -0.0145893 -0.010809 -0.0608086 0.0337285 0.0179788 -0.00433422 0.0441843 -0.069634 0.056339 0.0375706 0.0731602 0.0611983 -0.0892174 0.088974 0.0911996 0.0266236 -0.075789 0.0965691 -0.0219751 -0.0213507 0.0387772 0.0423515 -0.0609861 -0.0558245 -0.0400987 -0.0366235 0.03314 -0.058699 0.0555113 -0.000437327 0.0849796 -0.059703 0.0271634 -0.0750285 0.00992769 0.083945 -0.0416039 -0.0415215 0.0515707 -0.0840194 0.0320636 0.0231836 0.0147423 0.0452432 -0.049875 0.0059745 -0.0278035 -0.0128991 0.00118261 -0.0112335 -0.00571755 -0.0604522 0.0659131 0.0344993 -0.075432 -0.0695965 0.0355764 -0.00542924 -0.0916923 -0.0106115 0.0945368 0.0850119 -0.0330015 -0.0412158 -0.0815746 0.0783584 -0.0605868 -0.0236225 0.0751944 0.0923899 -0.0698317 0.00723059 -0.0470953 0.0449405 0.0887313 0.00329251 -0.0468856 0.0994708 0.0159734 -0.0114306 -0.074 -0.0886333 -0.0338273 0.0930678 0.0446529 -0.00964401 -0.0758509 -0.0190313 0.0229811 0.0717201 0.00815126 0.0163982 0.0655654 0.0751885 0.0129301 0.0210207 -0.0103216 0.0537443 0.0978967 -0.0964097 -0.0156363 0.0663617 -0.0526087 0.0363186 -0.0524116 -0.0638447 -0.0618283 -0.066205 -0.0628061 -0.0060011 0.0243791 -0.0358297 0.00334774 0.0277845 0.0957902 -0.0485678 0.0541744 0.0587974 -0.0299645 -0.0229625 0.0299774 0.0163434 0.031552 -0.00681299 -0.0736066 -0.0534233 -0.0846275 -0.0420461 0.0381097 0.0507607 -0.0385943 -0.0804786 -0.0465327 0.00877075 -0.0060919 0.00158351 -0.016604 -0.0285099 0.0355981 -0.0416007 0.0650591 0.0977823 -0.0406457 -0.0297084 0.0257207 -0.045215 -0.0390223 -0.0188493 -0.0866071 -0.0312239 0.059197 -0.0186739 0.0839449 -0.067913 0.0765648 -0.0870184 -0.0232045 0.0297801 -0.0299387 -0.0856208 -0.0192485 0.0229623 0.0715984 0.0351743 0.0771419 -0.0964503 0.0728359 0.100496 -0.0243925 0.01038 -0.0424516 -0.0594744 0.00643328 0.0171329 -0.0524213 -0.0681965 0.00999902 0.00908528 -0.0493064 -0.0386298 0.0159906 0.0490852 0.0447184 -0.00151924 0.0804924 -0.0414813 0.012415 0.0959656 0.0867898 0.0841076 -0.0898622 -0.0950016 -0.0475518 0.018798 -0.0224609 0.0684298 0.0218186 -0.0486341 0.0671876 0.0353996 0.0605867 0.0635903 0.0135907 -0.0940577 -0.0814021 0.0621951 -0.0641978 0.0265689 -0.0900237 -0.0720104 0.0287791 0.0255889 0.0755471 -0.0914138 0.0631996 -0.00300606 -0.0354768 -0.0242024 -0.00836804 -0.0500846 0.0977665 -0.0612437 -0.0431706 0.0854147 0.0549879 -0.0272046 0.0565684 -0.0820353 0.0237449 -0.0368553 -0.00803498 -0.016297 -0.0749036 -0.0952179 -0.0114533 -0.0544355 0.00539587 -0.0346958 0.0111697 0.0147992 -0.00537139 0.0781536 0.0779485 -0.0918779 0.0855275 0.0409836 0.00557759 0.0894592 0.0553822 0.0973646 -0.0573762 -0.00986607 -0.0667865 -0.0632828 -0.0214331 0.0318477 0.00979533 0.0727792 -0.0135122 -0.0658208 0.0735489 0.0697548 -0.0442108 0.100164 0.0821357 -0.0162572 0.0800733 -0.0114227 -0.0123927 -0.0686288 0.0411624 0.0796479 0.0456431 -0.0399082 0.0253995 0.030341 0.0369896 -0.0694477 0.0188176 -0.0702388 0.0658 -0.000514529 0.0195712 -0.0999594 -0.0268556 0.0396467 -0.0310978 0.0221772 -0.0536088 0.0571304 -0.00604646 -0.0804017 0.0367482 0.0489979 0.0563378 0.0186381 0.0698895 0.0385383 0.0450008 -0.0418379 0.00600677 -0.0130089 0.0743901 -0.0488415 -0.0168211 0.000406044 0.018422 -0.0833759 -0.0302411 -0.0596104 -0.0506301 -0.0644109 -0.0240063 0.0716851 0.0763527 0.0514142 -0.0604156 -0.0552117 -0.0259744 -0.0143652 -0.0935593 0.00535327 0.00696252 -0.0264426 -0.0486645 -0.0352234 0.0937672 0.0625592 0.0403346 -0.0228365 -0.0807643 0.0840718 0.0641425 0.0945484 -0.065376 -0.0526257 -0.0678132 0.0556952 -0.0974705 0.00218049 0.0336634 -0.0482153 0.0375298 0.0494043 0.058309 -0.050234 0.00138698 0.0992314 -0.00660771 0.0127851 -0.0760014 -0.0675781 -0.0831732 -0.0287074 0.00894646 -0.088453 0.035767 -0.0604182 0.0106648 -0.087402 0.0167605 0.022163 0.0969983 -0.0806158 -0.0389414 0.0709493 -0.0975152 -0.0688215 -0.0347901 -0.0922194 0.0321663 0.0358544 0.0966592 -0.0928355 -0.0152127 0.0549113 -0.0420385 0.0250626 -0.00955011 -0.0122306 -0.0624188 -0.0460509 -0.0412271 0.0911141 0.0249413 0.066942 0.0406225 0.0989461 0.0457521 -0.0472627 -0.086714 -0.0390017 0.0210053 0.0459792 -0.0822284 0.0202378 -0.0476741 -0.0782172 0.0509973 0.0181902 0.0669822 -0.0780084 -0.0460184 0.0642911 0.0675975 -0.0240784 -0.0419398 0.061231 -0.0999667 -0.0138105 -0.0500113 0.0759888 0.037667 0.00877539 0.00699024 -0.034954 -0.0883855 -0.0510212 -0.0371633 0.0566211 -0.0606873 -0.0882675 0.054947 0.05768 -0.00858349 0.0121907 -0.0818396 0.0491103 -0.0374451 0.0709043 -0.0348534 -0.0617761 0.0292203 -0.041439 0.0400577 -0.00221647 0.0353766 0.0356642 -0.0417199 -0.0260195 -0.0795346 -0.0528246 -0.0512452 -0.00153197 -0.00666611 0.0561646 0.0671195 0.0057441 0.0425729 0.0649843 -0.0984067 0.0798514 0.0120409 -0.00389999 -0.0196612 -0.0912182 -0.0922042 -0.0018489 0.0571973 -0.082202 -0.0866922 0.0530962 0.0961608 0.0347931 -0.0820772 0.0351502 -0.0691478 -0.00764371 -0.0309599 -0.0692382 0.00335478 -0.0715636 -0.0243021 0.0529308 0.0246313 0.0696921 -0.0546103 -0.0715193 -0.0874659 0.0247683 0.0931906 -0.0854261 -0.0564267 -0.0566091 -0.0511031 0.0227452 -0.0468811 0.0953661 0.0573901 0.049531 -0.0866544 0.0629793 0.0104274 -0.0918299 -0.0654322 -0.0321539 -0.0203825 -0.0953966 -0.00182025 -0.0102661 -0.065401 -0.0996082 0.0147811 0.0103241 -0.00941171 0.0778201 -0.0845556 0.034033 -0.0945697 -0.0664573 -0.0388301 0.03817 0.082528 0.00397534 0.0829808 0.0715974 0.0655901 0.0743974 0.0666038 -0.0429006 0.0249487 0.017542 -0.0798999 0.0698569 -0.0408881 0.0953759 -0.0588469 0.04216 0.100901 0.0393316 0.0665907 0.071276 -0.0201871 -0.0180295 -0.0817456 0.0669924 0.0979955 -0.0623182 0.00124025 0.045324 -0.0939203 0.0017444 -0.020656 0.0902273 0.0434844 0.0995728 0.0629774 0.00626565 0.0117825 -0.0334142 0.0648328 0.0722283 0.0205714 0.0247095 0.0455755 0.0833066 -0.0428044 0.0861789 -0.0368839 -0.0436021 -0.0370588 -0.0760433 0.0659984 0.0391837 0.0116197 0.0855581 0.00475447 -0.0498628 -0.0771634 0.0469711 0.0903407 -0.0713308 -0.0535376 -0.0904857 0.0563955 0.0255432 0.0451896 -0.0422691 -0.0694848 -0.0420784 0.0243999 0.0342959 -0.0710263 -0.0550293 0.0970772 0.0763137 0.0669918 -0.0448307 -0.000428046 -0.0661155 -0.0508355 0.0617793 -0.0371554 -0.0848018 -0.0618615 0.0142295 -0.100219 -0.0188122 0.0621906 0.0613996 -0.0727906 0.0580733 0.028781 -0.0876695 0.0615881 -0.0137563 0.0351922 -0.0584291 0.0431475 0.00718948 0.000388556 -0.0934109 0.0769619 -0.0330146 0.0907902 0.0773881 0.0781065 0.058788 -0.0681583 -0.0235571 0.0909666 -0.0188456 0.0758887 -0.0488412 -0.00293373 0.0543666 0.067768 -0.0640564 -0.0656504 0.0315327 0.0981878 0.0992668 -0.0787101 0.0247798 0.0472809 0.0211834 0.0503577 -0.0757133 0.0645603 -0.00583828 0.0306508 -0.0346347 -0.062465 -0.0517276 -0.0300756 -0.0730146 -0.0740221 -0.0508295 0.0855915 0.0957742 -0.0352422 0.0131153 -0.0241672 -0.056108 0.0699127 0.0114625 0.0343952 -0.0268188 -0.0167016 0.0703599 0.0427314 -0.0256593 0.00619847 0.0645644 0.0423837 -0.0452368 -0.0172072 -0.0680621 -0.0215614 -0.0514006 0.022961 0.0476211 -0.0483256 -0.00223889 0.0933573 0.0205455 0.0247979 0.0574229 0.00816436 -0.0514438 0.0537999 0.0734994 0.0621037 0.0665256 0.0532592 -0.0322574 -0.0837397 -0.00886706 -0.0206185 0.00231097 0.0963589 -0.0794017 0.0207827 0.00650336 0.0841077 -0.0975628 0.0628534 -0.0940145 -0.0679609 0.0743902 0.0933637 -0.006809 -0.0410088 -0.0564397 0.0909975 -0.0468589 0.0629359 -0.0484507 0.050497 -0.0266104 0.00277915 0.00399837 0.0825444 -0.0978137 -0.0898003 0.0402185 -0.0922133 -0.0716211 -0.069958 -0.0153629 0.0295681 0.0649386 -0.0545736 -0.0530312 -0.0361027 0.0711081 -0.0480483 0.064117 0.105634 -0.0156561 0.0387723 0.0658777 0.0140319 0.0961578 -0.0915328 0.00579285 0.0873955 0.0130902 0.0601183 0.0377992 0.0282819 0.100363 0.0805269 0.00922697 -0.0984603 0.0901828 0.0881867 0.0482698 0.0557918 0.0571555 -0.0650729 -0.014195 0.018027 -0.0809059 -0.0266534 0.0876695 0.0865855 -0.0386186 0.0490382 0.0599882 -0.0135407 -0.0818182 -0.0360108 0.0979926 0.0565668 -0.0886352 0.00503313 0.0449759 -0.03757 -0.0990006 -0.0794027 0.0872043 -0.0998802 0.0389482 -0.067066 0.0406965 -0.0334009 0.0582919 -0.0131461 -0.0778287 0.0149906 -0.0398549 -0.0546372 -0.0660262 -0.0218618 0.0171548 0.0594007 -0.0326701 0.0785899 0.0103336 0.0629602 0.099798 -0.0273681 -0.0736018 0.101436 -0.0679996 0.0745642 -0.0600483 0.0131952 -0.0614098 -0.0597927 -0.0252774 -0.0750275 -0.0579126 -0.0892115 0.0944132 0.0789013 -0.0243058 0.0535408 -0.0928104 -0.0628019 -0.0930109 -0.0345572 -0.0174242 -0.0576191 -0.015361 0.035801 0.0401975 0.0502219 0.0139591 0.0885761 -0.0484536 -0.046584 -0.0412595 -0.0873495 -0.0490045 -0.0694578 0.0937084 -0.0100533 0.043151 -0.0707318 -0.0319122 -0.0766416 0.0956884 0.00693367 0.0633924 0.0257862 -0.0709574 0.0775651 -0.0198195 0.0720581 -0.0844147 -0.074674 -0.0608928 -0.0628957 -0.095433 -0.0368128 0.0730901 0.0441919 0.0515747 -0.0738036 0.0313222 -0.0997142 -0.0192866 0.0317758 -0.0825889 0.0325765 0.0613794 -0.090066 0.0597977 0.00396103 -0.0682967 -0.0720108 -0.0432064 0.0687432 -0.0258375 -0.0809347 -0.00424278 -0.0607552 0.0991899 0.0146716 -0.0867995 0.052074 0.0365596 0.088121 0.0894237 0.0409896 -0.048657 -0.00135933 -0.077038 -0.097 0.0270823 0.0559487 0.0419959 -0.093376 -0.0742602 -0.00116968 -0.0224219 0.0863899 0.00933367 -0.0626351 -0.0714111 -0.012392 -0.0966112 -0.0146657 0.0948106 -0.085671 -0.0568043 -0.011167 -0.0454004 0.0811583 -0.0984082 -0.0340089 -0.0290843 0.03996 0.0928064 -0.0428514 -0.0853717 0.0825217 -0.0034011 0.0775978 0.0861982 -0.0782601 -0.0294147 -0.0308379 -0.0605386 -0.00631199 0.0681786 -0.0531607 -0.020551 -0.0854201 -0.0772524 -0.0531341 -0.0630074 -0.077188 -0.0282141 -0.0654467 -0.0592361 0.0155231 0.0231618 -0.0671337 -0.0671029 -0.0394213 -0.0612818 0.00202047 0.0393851 -0.068817 0.00209556 -0.00635844 -0.0842481 0.0963783 -0.0284388 0.0385082 -0.0806095 0.0421306 0.045345 0.0893961 -0.0624216 0.012554 -0.0630327 -0.0434339 -0.0372041 -0.0436338 0.00958119 0.00317648 -0.0757039 0.0775856 -0.0250189 -0.0994532 -0.070202 0.0367504 -0.0724771 -0.0366202 0.099783 -0.0910678 0.00396135 -0.0245986 0.0801445 0.0422187 0.0719711 0.0309576 0.0384541 -0.0580921 -0.0922557 -0.00507923 0.0842842 0.050799 -0.0766445 0.0589705 0.0999658 0.0983999 -0.0824371 -0.0362366 0.0933011 0.0253528 0.00455537 -0.0840424 -0.0608311 0.0185714 0.0565189 -0.0314362 -0.0456111 0.0291928 -0.0302113 0.0911285 0.0401795 0.011486 -0.0324093 0.0175951 -0.0468004 -0.06139 0.0879611 0.030181 -0.0816337 0.094188 -0.0746358 -0.0991321 0.0419438 0.0877185 0.00158948 0.0445885 0.0865982 0.0174794 0.046565 0.0817902 0.080203 -0.0516309 0.0365975 -0.0790265 0.0654445 -0.00469604 -0.0736544 0.0588882 -0.0807742 -0.0657386 0.051195 -0.00105077 0.0451505 0.0585001 0.0539606 0.0357727 0.0954438 0.0398121 -0.0318797 0.0504706 0.0353641 -0.0700038 -0.00709843 -0.0213734 -0.0818007 0.0940549 0.060783 -0.0950526 0.0135961 0.00633303 0.0253547 -0.0674317 -0.00604833 -0.0390172 -0.049214 -0.0376771 0.0518963 -0.0873401 0.0620619 0.0125763 -0.0509045 0.0117953 -0.0894177 0.0304046 -0.0314021 0.0645586 -0.0411103 -0.0976108 0.00577431 -0.030533 -0.00414452 0.0762635 0.00116645 0.0852098 0.0935993 0.0204482 0.0788481 0.0538734 -0.0378484 -0.0717763 0.0984875 0.0859989 -0.037564 -0.00758014 -0.0528481 -0.0498 -0.00687652 0.0375707 -0.036844 -0.047031 -0.0500423 -0.0488304 0.00436819 -0.0390187 0.0821287 0.0107623 0.0631981 0.0869789 -0.0488112 -0.0942257 -0.0421617 0.0420862 0.0833463 0.0577933 0.0281902 0.0146051 -0.084418 -0.0546276 -0.0926696 -0.0850021 -0.0262765 -0.096171 -0.100974 -0.0258767 -0.0626198 0.0853978 0.024589 -0.0333725 -0.0390145 0.0275902 -0.0397524 0.0102156 0.0783974 0.00263011 0.0105081 0.0615466 -0.0858614 -0.0904867 -0.0161997 -0.10032 -0.0830044 0.0439384 0.0449599 0.0397025 -0.0606455 -0.0899218 0.091423 0.0917708 -0.0446188 0.0967726 -0.0918254 -0.0316135 0.0420779 0.0455973 -0.0200007 0.0158658 0.0317834 -0.0921606 0.0842079 0.0342288 -0.0308153 0.0841677 -0.0588146 -0.0526074 -0.0140241 -0.0107427 0.0460556 -0.0644132 0.00147753 -0.0688319 -0.0610244 -0.0442139 0.0117804 0.0218545 0.0325788 0.0507592 0.0272816 0.022989 0.043193 0.0252037 0.0211412 0.0495138 0.0327669 0.100786 -0.00280064 -0.0881851 0.015848 0.0666692 0.0543588 -0.0633977 -0.00264419 -0.0766009 -0.0796432 -0.0235345 -0.090057 0.00639995 0.00526538 0.0549608 -0.0198822 0.0422561 0.0235545 0.0196463 0.0999557 -0.0625029 -0.0532729 0.030747 0.0243879 0.0138128 0.0913962 -0.0333763 -0.0594713 -0.052471 0.0560534 0.0724355 -0.0506008 0.0909682 0.0235679 0.00318467 -0.00400144 -0.0224027 0.0408564 0.0332856 -0.000871562 0.0611358 -0.0880668 -0.0520019 -0.0934109 -0.0501104 -0.0948801 -0.0118098 0.0977284 -0.0378552 0.0465975 0.0965653 -0.00241037 0.0905563 -0.0354652 -0.07696 0.00192677 0.0896869 -0.0716044 -0.0166575 -0.0572362 0.0847301 0.0962686 -0.0693675 0.0134735 0.0160213 0.0335796 -0.092132 0.0963348 -0.0252136 0.0414829 -0.0665386 0.0743992 -0.0117305 -0.0192157 0.0185515 0.0419902 -0.0743981 -0.0934237 0.0369963 -0.0152425 -0.00881707 -0.0300142 0.0216981 -0.0208144 -0.0285424 -0.0153056 0.022176 -0.034311 0.0123953 0.0425798 -0.0536323 -0.0646208 0.0355598 -0.0313944 0.0487796 -0.0474251 -0.0914676 -0.00483831 -0.0555631 -0.0780213 0.0746114 -0.0814475 0.0959382 -0.0361747 0.0065637 0.0155399 0.0400476 -0.0436265 -0.0398291 -0.0790537 0.0415822 0.0499674 -0.0754 -0.0976186 0.0683698 -0.0055006 -0.0142713 -0.0698811 -0.0019296 0.0377674 0.07119 0.0449313 0.0719599 0.00816058 0.0591996 -0.0414207 0.0583372 0.0724505 0.051596 0.0423652 0.0284105 0.0293527 -0.00300081 0.0251907 0.0281906 0.0321382 0.0805411 -0.0930208 0.0868924 -0.06446 -0.075805 -0.0306011 0.0249979 -0.0502204 -0.0274311 -0.00310513 -0.0166004 -0.00257485 0.0204299 0.0205975 -0.0655587 -0.00937668 -0.0964199 -0.0920817 0.0361456 0.0600831 -0.100321 -0.0652234 -0.030429 -0.00546907 0.0143454 0.0985588 0.0581958 -0.0892762 -0.0391289 -0.0128288 0.0430324 -0.0596258 -0.0662323 -0.0287186 -0.0856993 -0.0426101 0.0398626 0.0417343 -0.0556544 0.050422 0.0711285 -0.0346152 0.0879482 -0.00495627 0.0871629 -0.0778518 0.0232874 0.0882493 0.0631032 -0.0384849 0.000865298 0.0684483 -0.0664043 0.0603692 -0.0385783 0.0483883 -0.00246845 0.0501103 0.0591984 0.0579929 -0.056904 -0.0580768 0.0345306 -0.0852211 0.0112224 0.0513805 -0.0286085 0.0894326 -0.0716975 -0.0454594 -0.0217927 0.0991086 0.0195896 -0.0370623 -0.068825 -0.0570293 -0.0140469 0.0557434 -0.0662568 0.0861041 0.052842 -0.0390427 -0.00795258 0.0257771 0.0597708 0.0543098 -0.0258463 -0.0416772 -0.0501786 0.0713885 0.0513199 -0.0689484 -0.0900224 -0.0130227 -0.0545433 0.0227902 -0.0625933 0.0177908 -0.0506087 -0.0962396 0.00998828 0.0268288 -0.0965946 -0.0728419 0.0900789 -0.0654293 -0.0280113 -0.0876015 0.0233047 -0.0566427 0.10019 -0.0823377 -0.0606152 -0.00760241 0.043823 -0.101391 0.0851458 -0.0824428 -0.0461432 -0.0688106 0.0854933 -0.0932138 -0.0968569 0.0385393 -0.00607424 -0.0516455 0.0975718 -0.0305206 0.00304018 -0.0518381 -0.0284754 -0.0860256 0.0743956 -0.0868909 0.0797057 0.0039711 0.0846563 0.0903623 -0.0468454 0.0106617 0.0698093 0.0909802 -0.0320359 -0.0908216 -0.0784215 -0.0890296 -0.0898077 0.0388358 0.0646072 -0.0336853 0.0143668 -0.00628972 -0.0892042 0.016761 -0.0698647 -0.0578021 0.0639586 -0.0790141 -0.0504202 -0.031235 -0.024939 -0.041037 -0.0192384 0.0885749 -0.0275712 0.0991899 -0.0700312 0.0948456 0.0882408 -0.0176383 -0.0576065 0.0575285 -0.0252385 0.0101156 0.0679614 -0.0672389 -0.0388469 0.0804446 0.0755695 -0.0761752 0.0834006 -0.010644 -0.0443283 0.0345577 -0.0846729 -0.0122888 0.077129 0.0695887 -0.0465521 -0.0754018 0.0745329 -0.0313775 -0.0173817 0.0933627 0.0943458 -0.00620039 0.0927708 -0.075818 -0.010628 0.0801254 -0.0554116 0.0325618 -0.0258724 -0.0466547 0.082149 -0.054801 -0.0112207 -0.0600015 0.0615839 -0.0364146 -0.0960097 -0.0139615 -0.0109036 -0.0390212 -0.0782123 -0.00598451 -0.0144317 0.0347308 -0.0978775 -0.0251948 0.0552045 0.0163952 -0.0162504 0.0801584 0.0116932 -0.0208764 -0.0883318 -0.0587347 -0.0601552 -0.0616185 -0.0811478 -0.0784066 0.0715765 -0.0653022 -0.0233457 -0.0104007 -0.0823217 0.00494641 -0.0318563 0.0808326 0.00532202 -0.0282247 -0.0944033 0.0952837 -0.0292363 -0.0736328 -0.0700441 -0.00822499 0.0575435 0.073071 0.00797637 -0.0434395 -0.0110233 0.0911788 0.0739468 0.0359977 -0.0934354 0.0778704 0.0759984 -0.0540064 -0.076338 0.0345504 -0.0335882 0.0339575 0.0694033 -0.01661 0.060554 0.0864469 0.0240829 -0.0702659 0.00487 -0.0704613 -9.72562e-07 0.0122781 0.0619669 0.00776878 -0.0244094 0.0308978 -0.0924247 0.0709541 0.0024838 -0.0534421 0.0665517 0.0923559 -0.0612379 0.0411315 0.0281429 -0.0558017 -0.0305459 -0.0578207 -0.0720307 -0.0107572 0.0744895 -0.0662024 0.0601918 0.0441996 0.0168047 0.0215907 -0.0306276 -0.059039 0.0501976 0.0740016 -0.0935425 0.0856381 -0.0758142 0.0727705 -0.00381143 -0.0620203 0.00113974 -0.064833 -0.0892191 0.0454991 -0.0206859 0.077588 -0.0259744 -0.045105 -0.0430404 0.0397423 -0.000204216 0.0189265 0.0773295 0.0293951 -0.0894273 0.0569393 0.00212735 0.00975293 0.000587826 -0.0816875 -0.0699071 0.070149 0.0960018 0.0201639 -0.018604 -0.0942902 0.00639517 0.00618047 0.0154659 0.042934 0.0435304 0.056437 0.0133326 -0.00804463 0.000996422 0.0942753 -0.0322075 0.0747842 0.0887751 0.0311869 0.0127262 
